Frame;3_X;3_Y;3_Z
0;0.0;0.0;0.0
1;0.03190497601918978;-0.4734722374100797;0.10247523261391199
2;0.1138025683453246;-0.9808985683452892;0.06511548201438637
3;0.07707000000000504;-1.5093686954436556;0.14647165947241453
4;0.04641080815348142;-2.1624788105515567;0.08255582014388589
5;0.08040500239808161;-2.7888343117506005;0.022992395683453255
6;0.12325635011990806;-3.4141693453237445;-0.10900987529977246
7;0.10524310311750924;-4.112030275779385;-0.11737167386091314
8;0.09154921103117679;-4.827710748201417;-0.10521795923261151
9;0.13712978417266522;-5.565787249400475;-0.1425389760191856
10;0.158273340527581;-6.33628213669066;-0.19438059232614172
11;0.21849917026379076;-7.200952769784178;-0.1805443788968928
12;0.3439396211031185;-8.158919913669079;-0.15634609352518827
13;0.4894178249400487;-9.112295196642682;-0.1612148393285381
14;0.7015784964028787;-10.089716505995172;-0.10621758033573885
15;0.8092291294964067;-11.124808422062328;0.028803446043155767
16;0.8282045275779416;-12.294728606714616;0.3073094460431562
17;0.9552316043165511;-13.432361477218208;0.6514091390887179
18;1.0194399160671495;-14.699096717026363;0.8824335659472297
19;1.1231387266187058;-16.035312587529976;1.173217400479602
20;1.377745750599524;-17.407925223021568;1.2597995227817713
21;1.6807525467625917;-18.88134511270981;1.3522822925659554
22;1.9213445491606695;-20.365046350119897;1.4561556690647528
23;2.1581581486810575;-21.99582643645085;1.573930419664263
24;2.492786848920867;-23.573073470023996;1.8327187937649787
25;2.918123647482018;-25.275655062350143;1.9398763549160591
26;3.346957764988009;-26.91115591127097;2.06717332613909
27;3.7205335563549227;-28.81763699520383;2.393820201438844
28;3.953051381294969;-30.587011364508367;2.7204368752997574
29;4.368674752997602;-32.55638993525178;3.128385527577946
30;4.973033004796167;-34.47472584892085;3.3111426522781717
31;5.390301318944844;-36.50036912470025;3.40682823021583
32;5.919964872901681;-38.53911927817747;3.4398353501199033
33;6.46682679136691;-40.72753488249398;3.790139621103112
34;7.037366107913673;-42.89462267146282;4.0902134004796125
35;7.524014225419665;-45.03574811270982;4.318928211031172
36;8.11028441966427;-47.398717484412465;4.457206282973618
37;8.79524281534772;-49.71507642206236;4.767616294964035
38;9.391948115107917;-52.00879666666668;5.170758242206238
39;10.056923923261394;-54.503539059952026;5.358100131894481
40;10.691988266187053;-56.936915019184646;5.521438846522784
41;11.420763956834534;-59.36851250119901;5.8151914244604255
42;12.140112786570747;-61.92827627098319;6.13620449880095
43;12.802242079136692;-64.49576203357313;6.501476455635483
44;13.56535153477219;-66.97294829976019;6.872155930455624
45;14.261731023980824;-69.45703979856114;7.062974254196642
46;15.159061971223027;-72.10150895683452;7.239272127098321
47;15.814560671462836;-74.69641845563548;7.663312877697841
48;16.731822618705035;-77.20814242206235;7.916167666666657
49;17.49946648920863;-79.78483947002395;8.15731033333332
50;18.32891204316547;-82.37342398800958;8.500918558752998
51;19.091717856115107;-84.9084526211031;8.891194127098315
52;20.00994681294964;-87.38015671462828;9.0658522589928
53;20.814750474820148;-89.89242942446045;9.385178685851315
54;21.690770110311757;-92.50866516067147;9.757391266187039
55;22.520273868105516;-95.00788364508394;10.161601359712224
56;23.36453527098321;-97.45624340527576;10.530948494004795
57;24.265215362110315;-100.0380107529976;10.831370623501192
58;25.118874458033574;-102.59063852278176;11.28859153717026
59;25.86564478177458;-105.06623445323741;11.5080778441247
60;26.803622112709835;-107.598926441247;11.737438853717011
61;27.741845822541965;-110.08791011990411;12.198893115107914
62;28.526447199040774;-112.55305735971224;12.823451767386084
63;29.494895438848925;-115.05627000000004;13.100174158273374
64;30.428160757793773;-117.4658373549161;13.406794002398088
65;31.37218335491607;-119.9761170047962;13.714200028776974
66;32.305968376498804;-122.45854505755392;14.054728944844108
67;33.1862494028777;-124.80255842206236;14.547837244604304
68;33.89961316067147;-127.24349027098326;15.059696335731411
69;34.93285462829737;-129.61006821822545;15.438931342925647
70;35.94871872661871;-131.9511890863309;15.805616767386075
71;36.756130014388496;-134.2288126354916;16.321847659472425
72;37.707461824940054;-136.43531918705034;16.632254045563545
73;38.76342036211032;-138.78268969784173;16.879183338129497
74;39.64630611510791;-140.98041594004795;17.296505247002386
75;40.45411913429256;-143.11300701678658;17.73469219184653
76;41.39147599760193;-145.3334572733813;18.042211098321342
77;42.41038543405276;-147.28832647242203;18.17574870503597
78;43.26654844604317;-149.36604434772178;18.668384091127106
79;44.09690738369304;-151.49372602158277;18.92182070263789
80;45.02041432134293;-153.45345682014386;19.191752815347712
81;45.824784693045565;-155.39353330215826;19.47303147961631
82;46.717706676259006;-157.26418846043168;19.721822297362102
83;47.646778621103124;-159.15299707673861;20.029455928057548
84;48.47814561630696;-161.08079073381296;20.33015467146282
85;49.28108563069545;-162.79881178657072;20.597500047961617
86;50.12014035491607;-164.52261099999998;20.76588911510791
87;50.90623305995204;-166.18755959952034;21.08723562350119
88;51.66106063788968;-167.96812475779373;21.461419446043163
89;52.29927943645084;-169.56428437889687;21.756405966426843
90;52.96900170983215;-171.1317072110312;22.098952448441253
91;53.67012334532374;-172.65952352997604;22.283669851318944
92;54.46653695203836;-174.19797065707436;22.312506206235014
93;55.23524866906475;-175.74037203357315;22.422424908872898
94;55.8630871822542;-177.12547183693047;22.454826752997594
95;56.50261341726619;-178.51123231894485;22.61604100719425
96;57.18738247721823;-179.8687493141487;22.713785786570735
97;57.93209923021583;-181.22870632374102;22.805939460431645
98;58.631388443645086;-182.48935978417265;22.975550796163073
99;59.22265459232614;-183.75798950119903;23.095729359712237
100;59.82926552757794;-184.9941847122302;23.27386113189449
101;60.425940158273384;-186.19306904796167;23.42681455155875
102;61.07919901678657;-187.3550464820144;23.27286048201439
103;61.69965413669064;-188.44648898081536;23.261783115107914
104;62.19772424220624;-189.46829827817746;23.527997261390894
105;62.62699029256595;-190.4864198321343;23.606100316546744
106;63.16360233093525;-191.498039911271;23.43036545083932
107;63.70633866426859;-192.51044558992805;23.407244117505986
108;64.17381962589928;-193.45631169304556;23.389343462829732
109;64.68465022541966;-194.29688396402878;23.23350440767386
110;65.24878721822542;-195.2041929832134;22.889168009592336
111;65.71548208153477;-196.07253926378903;22.775382616306945
112;66.18137938609112;-196.81892952038368;22.742455215827324
113;66.5838833764988;-197.60000215107914;22.649958081534763
114;66.90859533093526;-198.41022869784172;22.570096119904075
115;67.21947707194245;-199.13429893285374;22.48731331654676
116;67.59304868105515;-199.74990305035968;22.35656633333333
117;68.00890696402878;-200.39304861870505;22.2120592326139
118;68.35135473381295;-201.002306470024;22.169143184652274
119;68.58137970743405;-201.6037312973621;22.09761608633093
120;68.79336429736212;-202.1620305971223;21.927151971223015
121;69.10090816067147;-202.68353590887287;21.638148194244607
122;69.37682076019185;-203.20628030215826;21.310759477218223
123;69.65283423741006;-203.6876660863309;21.073756057553954
124;69.87525022302158;-204.1702120263789;20.792434160671455
125;70.09209019184652;-204.57061292326136;20.67164830215827
126;70.33363563788969;-204.97601607913668;20.53446431894483
127;70.55109143884891;-205.33786808153476;20.418820757793764
128;70.69823361870503;-205.66375502877702;20.30980009352517
129;70.86542685371704;-205.97477931894483;20.14211965467626
130;71.00808730935252;-206.30001455155875;19.96149896402878
131;71.10060560911272;-206.67835100479616;19.860371856115098
132;71.28227157553958;-206.9934256498801;19.548191069544362
133;71.46024080095924;-207.28108029736208;19.22938403117506
134;71.62786909352518;-207.55407389928055;18.83092555155875
135;71.7357828968825;-207.76306147002398;18.528905884892072
136;71.81406134772183;-207.9563606690648;18.227285568345305
137;71.86023190647482;-208.11719402877702;17.854760733812963
138;71.81334373621104;-208.21828454436448;17.72556611990405
139;71.80989733333332;-208.31215433333332;17.523340666666666
