Frame;3_X;3_Y;3_Z
0;0.0;0.0;0.0
1;-0.4046853137254967;0.4460860641025464;-0.368005576168934
2;-0.3980976538461595;0.4770392503770571;-0.20124951055808638
3;-0.6478208951734659;0.5695629875565364;-0.15709608333334132
4;-1.0492819472096524;0.6115878733031354;-0.04248198340875801
5;-2.32263735444947;0.617473334464532;-0.14780829072400406
6;-2.7353355904977428;-0.2655844766214459;0.7764023250376907
7;-3.633927189291098;-0.6763740938914428;1.209275912141761
8;-5.128746034690804;-1.2809905414781833;1.603518452488683
9;-6.729708925339371;-2.1236716331071417;1.8401007386877664
10;-9.047673046757163;-2.609891026395201;1.831861603318221
11;-10.726162736048265;-4.380601427601854;2.6368446987179177
12;-13.063112523378585;-5.817516137254944;2.7229114645550183
13;-15.770319377450983;-7.062788725490208;2.8254090588235052
14;-18.29513537330317;-9.061121721719495;3.4250753325791776
15;-21.158867941176478;-10.874422563348467;3.589693892156865
16;-24.11048404977376;-12.372924188536961;3.6475963484162897
17;-27.267286679487185;-13.708372929487199;3.655990294871788
18;-30.277445464555054;-15.49506463348417;4.112598269984897
19;-33.49603509954752;-17.114474303544533;4.187700530920047
20;-36.59899232579186;-18.872035476621466;4.32533262292608
21;-39.83960390233786;-19.91863051621421;3.79396704072396
22;-42.608245213423835;-21.70643792986427;3.8907650377073595
23;-45.62653250527904;-22.73223875791859;3.5361671617646806
24;-48.432411621417806;-23.44728041478133;3.076300636500722
25;-50.79806736236804;-24.996130988687813;3.094468738310668
26;-53.241521068627456;-25.767204392156895;2.8611431666666403
27;-55.469146519984925;-26.41444758748118;2.3365413582201953
28;-57.66111346907994;-27.245980334841644;2.291586861236793
29;-59.52998625678733;-27.68776710256412;1.9868885855957636
30;-61.43489182428356;-28.341588315233807;1.8386891176470417
31;-63.181154044494725;-28.893531796003042;1.586737511312198
32;-64.85910237405733;-29.298747358974385;1.1149925972850445
33;-66.19497818099548;-29.197061128205153;0.4806105429864059
34;-67.50603396153848;-29.38584050000003;-0.20688278205129565
35;-68.79461753016592;-29.707387751885403;-0.6653993661387769
36;-70.08334344042233;-29.953049111613897;-1.0420082307692453
37;-71.059274586727;-29.912021463423866;-1.4757062217194712
38;-72.49501512368025;-29.994683918552067;-2.069933508295657
39;-73.12242419607844;-29.621215612745132;-2.7888587500000246
40;-74.09206166817498;-29.768500633484205;-3.1897870542986655
41;-75.40175901546003;-30.364576093137288;-3.389843397812994
42;-76.20114380920062;-30.165628008295656;-3.9972501138763405
43;-77.00065724245852;-29.85325541251889;-4.638363926470609
44;-78.05519322171945;-30.222592574660684;-5.4259628476621655
45;-78.66189552639517;-29.50317636538467;-6.108909194570157
46;-79.47537175339367;-29.311233639517393;-6.746231990196084
47;-80.15080789366517;-29.51504442722478;-7.410344912518859
48;-80.74002570588236;-28.849624523378612;-8.335241536953257
49;-81.53106975113123;-28.445689768099566;-9.192265799773777
50;-81.99984592232278;-28.66244345173455;-9.391107190045274
51;-82.55795057692308;-27.94440180769234;-10.262510621794876
52;-83.2171224509804;-27.66635617647063;-10.900837960784322
53;-83.9375333005279;-27.69135082541483;-11.103170766214197
54;-84.33557358144797;-27.483318292609397;-11.546279206636518
55;-84.99018944343892;-26.63339537217197;-12.467611826923097
56;-85.57526594720967;-25.801799959276035;-13.026232286576189
57;-86.16695358446457;-26.01821564856712;-13.046922065987948
58;-86.49260095852189;-26.177781823529426;-13.198796720211158
59;-87.04715036802413;-23.520423059954766;-14.979236183634995
60;-87.73049726696833;-22.326315051282066;-15.815733164404241
61;-88.75917489366515;-23.643729717194585;-14.892465319758694
62;-88.87888240196078;-24.32328261990955;-14.564072373303178
63;-89.47585008069382;-23.38921130580698;-15.372371427601825
64;-90.17587063197588;-23.128747211161436;-15.425114372549032
65;-90.61842544607845;-23.143579210784367;-15.067537593137269
66;-91.09981138310708;-22.397495872549047;-15.174642223227757
67;-91.68534459049776;-22.713883325791887;-14.640268866138769
68;-91.92238394871795;-23.836534820512867;-13.875776589743614
69;-92.23282254901962;-24.22669793325794;-13.512124700980388
70;-92.71986151809955;-21.438203605580696;-15.093992395927605
71;-93.1497171561086;-17.91672697699853;-16.645107289215705
72;-93.64268613876321;-16.457450665158387;-16.932292784313752
73;-93.94879336349925;-17.124353784313755;-16.19102833936652
74;-94.5592783092006;-18.313905575414818;-16.049851378582208
75;-95.53444397285068;-17.65528072021124;-15.840969128770729
76;-96.5067230173454;-13.98825493438919;-16.44676208446455
77;-94.66941167948717;-17.909217713423846;-15.004381900829566
78;-94.91372347058821;-16.934730921568633;-15.244515215686278
79;-95.43405173114631;-17.59477809313727;-14.45118824170438
80;-95.5073893438914;-17.782278749622957;-14.082582775263957
81;-95.98424867873304;-17.613291680618417;-13.797746501885376
82;-96.5880260550528;-17.134749486425367;-13.611835108597296
83;-96.1191977556561;-17.272857592760232;-13.35270343438915
84;-95.68497020361991;-19.00916349924589;-11.923673760181009
85;-95.65771757371795;-18.051037580128284;-12.437253907051273
86;-95.74412750452488;-15.307325888386169;-13.94469811613876
87;-95.71583219984916;-15.041110872926117;-13.394338831825031
88;-96.2981133122172;-15.689717298642554;-12.745582696832583
89;-96.0657190245098;-16.97905286161391;-11.835751440045263
90;-95.82288210407239;-18.713698922322823;-10.404885838612373
91;-95.99873674019608;-17.216176019607886;-11.34212572549019
92;-95.90339489743592;-13.611823266968381;-13.08380720512819
93;-95.81737850980393;-12.78919709313729;-13.16677930844645
94;-96.11339858295628;-13.803101622171988;-12.936914119155361
95;-96.30432344042232;-14.178593251131261;-12.727196919683266
96;-96.47623246907995;-14.501510268476645;-12.584353971342379
97;-96.65860020022626;-14.974691561463095;-12.243905961161383
98;-97.24358352262443;-14.622661335595831;-12.490037719457007
99;-97.48590663423833;-14.136062768476682;-12.695595756033185
100;-97.673028693816;-14.22557575414786;-12.50398126847663
101;-97.88666989630468;-14.341645188914072;-12.310745773001509
102;-98.25647608974357;-14.075426974358995;-12.308786320512825
103;-98.97498441327302;-14.472907307692344;-11.90425993740574
104;-99.30556539215685;-14.820042607843163;-11.721478882352942
105;-99.74876247171944;-14.20859648416292;-12.10816052978884
106;-100.1030477413273;-13.777134847662154;-12.370306766214194
107;-100.27893120889894;-13.141443171191574;-12.667798040723994
108;-101.14127798190047;-11.610983239819054;-13.058836150829563
109;-102.037585627451;-9.494773604072412;-13.51270647511312
110;-101.37680607993968;-11.054096300150846;-13.360075234539977
111;-101.13175412481148;-12.45374514441932;-12.872940616515857
112;-101.82505014630469;-11.59530258974362;-12.917116488687787
113;-102.99982344155357;-9.719354379713456;-13.052975769230768
114;-103.43264460030167;-8.963384065610896;-12.964696204374059
115;-102.27877243702868;-13.058360576168932;-12.417890128205135
116;-102.0827364766214;-15.023025277526424;-11.690229285067872
117;-102.52543841176471;-14.595027446078475;-11.676702362745099
118;-102.00538363423833;-15.924984110105617;-11.086802159879342
119;-101.38385712179489;-18.109282000000036;-9.328387121794899
120;-101.31411814177979;-20.1456968808447;-7.624307799396693
121;-101.23197171266969;-20.103830941930642;-7.4862293563348565
122;-101.29980982126695;-19.913033615384645;-7.127265043740601
123;-101.3548089377828;-20.136765293363528;-6.497770899321299
124;-101.36785878431373;-20.07999436953247;-5.83245724886881
125;-101.4894367846908;-20.21824081334846;-5.299180445324296
126;-101.6339723657617;-20.53356257239825;-4.831788858220214
127;-101.73313883823529;-20.842832961915587;-4.470096377073919
128;-101.85974578883861;-20.881626592760227;-4.368624266968344
129;-101.94239943024134;-20.793837654600352;-4.269231787330327
130;-102.0731817647059;-20.876844882352987;-4.1824869509803975
131;-102.20466638499245;-20.927873064856765;-4.1504690444947165
132;-102.25250126847662;-20.902755437405776;-4.242058257918548
133;-102.20298479147813;-21.03420310935148;-4.2984421821266965
134;-102.29961126093515;-21.1289569253394;-4.448236512066367
135;-102.42578433446455;-21.161862693061867;-4.538528311840122
136;-102.60856056410258;-21.217074076923108;-4.662663333333337
137;-102.71254275301659;-21.23554859049776;-4.729977588235291
138;-102.85223622473605;-21.396699886123713;-4.706901433634992
139;-103.06281927941177;-21.64250287782807;-4.587362960407243
140;-103.24997882202113;-21.381099256410256;-4.851198182503787
141;-103.62494623001508;-19.27410867533939;-6.232310456259451
142;-103.94176045701359;-18.825965464555065;-6.636448503016614
143;-103.67671435294119;-21.939636426470585;-4.392404735294156
144;-103.58764589291103;-23.4098512262444;-3.255259809954769
145;-103.7432514581448;-22.78847651018103;-3.5161266715686517
146;-104.02856929864254;-22.577472758672744;-3.5630946568627615
147;-104.34493010520362;-22.237656567496273;-3.8936471206636742
148;-104.57189448717948;-23.126063770739105;-2.838661535444975
149;-104.55683027111616;-24.785445248491744;-1.4928818880090617
150;-104.91392328959277;-25.286928179487216;-1.028288877828069
151;-105.29448805241329;-25.087879447586733;-0.9536106662896279
152;-105.45146281447965;-26.09161460331828;-0.07007517948718937
153;-105.52185369230769;-26.507276429487188;0.2633240384615287
154;-105.64484805354452;-26.847742242835597;0.6854115603318084
155;-105.98344599434388;-27.84077822926093;1.4827132447209401
156;-106.24945643137255;-28.737957000000005;2.0422642156862483
157;-106.54361555467572;-29.557059687405744;2.473987036199073
158;-106.73286936199095;-30.316820787330318;2.7598182435897276
159;-106.97277045739067;-31.64018855957768;3.4823514019607775
160;-107.09803084766214;-33.604010518853705;4.327236983408729
161;-107.18280338046759;-35.19551089969835;4.7549679362744826
162;-107.48275357767723;-37.065495904977396;5.059510704374028
163;-107.62216022021117;-39.08203354487182;5.247482332579153
164;-104.25079213273015;-27.71454531523425;5.500714647058814
165;-104.30962014102563;-25.92159887518855;5.27534673944193
166;-108.21525925037709;-45.50034304600306;4.955727790346909
167;-108.31967707692309;-48.236429617270026;4.79016792722472
168;-108.00208622021118;-49.83948336500756;4.00632245852186
169;-107.33100003921571;-51.79172289215688;3.3942757254902047
170;-105.20600237179492;-39.53026453846201;1.1681341025641672
171;-103.148074504902;-33.59448974886879;-0.24565332767721001
172;-103.39296912820511;-56.77350905731529;1.4845893378582087
173;-101.49511144079936;-56.86039051018082;0.5207837085218383
174;-98.82313343363501;-43.20287181598798;-1.5081678265460017
175;-97.5901137662142;-62.33528343250378;-0.17850321568627456
176;-94.06828674811464;-42.275899886877816;-2.798499490196076
177;-92.34462961123683;-43.98655859879335;-3.5048423623680147
178;-89.7834385799397;-45.8813138755656;-3.984938895927591
179;-87.14123054411765;-47.710564453997016;-4.917649858220221
180;-84.94502952337858;-49.574951472096586;-6.108425431372555
181;-82.56740425791855;-51.600948546380145;-7.038818863499245
182;-80.07290796078433;-53.37191032352944;-8.128767999999999
183;-77.32889055203623;-55.576071159502256;-9.034974340874816
184;-75.06777257315235;-57.58544242383105;-10.135675628959275
185;-71.94779190837112;-77.11875430882269;-8.464948513951859
186;-70.47000073981899;-61.6707856297135;-12.423786169683268
187;-67.64280986538462;-64.27625480769235;-12.654149108974371
188;-65.6948570377074;-65.89320286425342;-14.065101642533941
189;-63.774490250377085;-68.16728004600304;-15.012677133107092
190;-61.6232928340875;-70.01575123453999;-15.884714813725493
191;-59.94254116628962;-71.85898979034691;-17.05841778619909
192;-58.41155340573155;-73.33409790346907;-18.23560523981899
193;-57.02479449547511;-74.78970345060335;-19.57950786500756
194;-55.95008015384616;-100.51883353921578;-16.622944342383114
195;-55.048405877450996;-77.00486810784317;-22.346161323529415
196;-54.35374200904977;-77.70587524132733;-24.00519456862742
197;-54.354690456636526;-77.7659492443439;-25.975387020361996
198;-52.1777185618402;-93.53213833861155;-22.86374945022648
199;-51.89507233672699;-81.38360059992465;-26.42773303280542
200;-50.21732097888387;-84.16343231372554;-25.62632181749623
201;-50.196643378205145;-85.55702965196082;-25.690427153469077
202;-47.01400520739063;-106.172233422323;-19.965129269230715
203;-48.15761750980399;-93.68297960369496;-23.5768164600303
204;-44.51928746153848;-110.17365453846155;-17.99105638461542
205;-43.484559713423856;-111.21150004374056;-17.223697538084505
206;-43.41055285520357;-105.44266708371067;-18.894323515082892
207;-44.47577337971344;-94.11348573642535;-22.335274662518874
208;-40.20027600000001;-113.69658415686276;-15.661821843137274
209;-39.07619004336351;-114.4150928687783;-15.26759966591253
210;-41.512235641025754;-101.85502521116108;-19.798068639517485
211;-36.67110648491707;-116.06698634238313;-14.518300295625963
212;-35.208611146304705;-116.84746680090501;-14.118697095022634
213;-33.60672427714932;-117.22157679336352;-14.20051299773756
214;-32.00786818024133;-117.27097685294125;-14.508915849924586
215;-36.40439028506785;-101.59445403167435;-19.147449631598775
216;-29.664482070889914;-117.03501280241328;-15.813566313725495
217;-28.74606357616894;-116.76351550942688;-16.849021956259417
218;-30.18672515082938;-110.8279579539975;-18.705422256410177
219;-30.657726981900357;-107.79056169683287;-19.702219521493205
220;-27.076692889894417;-115.57962840120666;-19.292563140271497
221;-30.323681749999995;-104.13889583333336;-20.746775666666665
222;-30.058269084464524;-101.87619573001525;-21.343915574660624
223;-29.82656193929111;-100.00139849434392;-22.087706561463047
224;-25.636490998491723;-114.61767083257921;-20.96621588386123
225;-24.88136086199096;-114.83024907390653;-20.984200370663675
226;-24.484288690799406;-115.05356345475116;-20.928206771493247
227;-24.553660121040732;-115.02321785369539;-21.418494841628988
228;-24.32267251583711;-115.14141393363502;-21.78367163197589
229;-24.049010368778283;-115.39564152413276;-22.107768034690807
230;-24.27040280316744;-115.44803649170443;-22.558158420814497
231;-24.283227303921578;-115.55847168137258;-22.781551613876346
232;-24.23802417496229;-115.5109342533937;-22.840203650075424
233;-24.20588512631977;-115.45664513876322;-22.949109950226255
234;-24.239398029411763;-115.38385004901961;-23.11995250980394
235;-24.148652958521875;-115.32994146229261;-23.299554690045255
236;-23.910834975867278;-115.34935840271497;-23.306607983408743
237;-23.764283423076936;-115.27339255316743;-23.533592901960777
238;-23.69411035897436;-114.91811973076926;-23.752094564102563
239;-23.578669251885373;-114.72208425226246;-23.788133953619916
240;-23.489454603318254;-114.8312411025641;-23.75160969230768
241;-23.46352383672701;-114.85238147247362;-23.78195143665158
242;-23.572980502262457;-114.75375379260937;-24.03458849924587
243;-23.594877477375576;-114.68457430015086;-24.13519375565613
244;-23.562844229260936;-114.4510245279035;-24.265661841628965
245;-23.08848594570136;-114.68588208069384;-24.270844297511314
246;-22.884697481146308;-115.09588937631979;-24.357245527903473
247;-22.798750666666677;-115.34432633823535;-24.33455218627452
248;-22.75485221116139;-115.44258290799398;-24.667076040723988
249;-22.725020881975876;-115.56624936312221;-24.94754897737559
250;-22.63111127149322;-115.81267619155358;-25.064711535444985
251;-22.696193880467575;-116.01864188536956;-25.37504105995477
252;-22.52904575716441;-115.85947368627455;-25.633398054298656
253;-22.364084074660642;-115.92776618929115;-25.90080255769232
254;-22.028024411010563;-116.21693923604829;-25.81470179110106
255;-21.6307516794872;-116.77313569230773;-25.601086000000013
256;-21.275583524886894;-116.92455318702866;-25.76560841779789
257;-21.103890223604825;-117.00386462669688;-26.26661948981902
258;-21.104322379713413;-117.13656166817502;-26.71276580882353
259;-21.004683547511306;-117.49333713046762;-26.91156492609353
260;-20.723043843137265;-117.87009192156863;-26.969828372549028
261;-20.50285078318251;-118.44131243363502;-26.825990293740578
262;-20.13234277375566;-118.92980861387633;-26.662420475867275
263;-19.779335951357464;-119.35651054751133;-26.432579191176483
264;-18.878293549019595;-119.69536714932129;-26.407823248868784
265;-18.16875878205128;-120.28793206900457;-26.249995194193072
266;-17.14778288536953;-121.2352057390649;-25.805978303167432
267;-15.914496343137278;-122.32288432051286;-25.170075180995507
268;-15.067913034690799;-123.02416813876324;-24.89821229562595
269;-14.449274036576194;-123.09836885331832;-24.905262049396697
270;-14.10437266968326;-122.74608501432887;-24.953693773755663
271;-14.325210599924588;-122.12595160105583;-25.3834942300151
272;-14.665904153846151;-121.3319426666667;-25.893151256410253
273;-15.065523789215689;-120.82268164705886;-26.034750225490203
274;-15.339514944193054;-120.24834571644048;-26.246337947209664
275;-15.741609145550534;-119.91386858484164;-26.372286356711925
276;-15.569682105580684;-119.99856374811465;-26.261257036199122
277;-15.375687418174946;-120.12683748114631;-26.027842569381622
278;-15.141174492458504;-120.22199243137258;-26.008147515837127
279;-14.94097936538462;-120.3495662522625;-25.87136030354453
280;-14.719290354449457;-120.45219928808451;-25.79456870588238
281;-14.529681376319736;-120.5665131715687;-25.66969854487181
282;-14.340309428355956;-120.73827432654606;-25.652085315987957
283;-14.113850854449439;-120.86429075754154;-25.635992030920065
284;-13.849201138763162;-120.9915425233786;-25.660939357466077
285;-13.556780009803882;-121.11638685369535;-25.588680270739072
286;-13.32399990196074;-121.21728467647064;-25.596446519607863
287;-13.09794871417793;-121.32883920211164;-25.62070665007543
288;-12.904628840120623;-121.45702032126697;-25.49831632428359
289;-12.736090032051235;-121.54070594230775;-25.496796987179504
290;-12.596707538461487;-121.6247484502263;-25.527570655354477
291;-12.481528884238264;-121.72593827903474;-25.547949847662156
292;-12.44216072850674;-121.86761077978889;-25.511188815987964
293;-12.32179513386121;-122.01330882880849;-25.541214718702886
294;-12.21974392307689;-122.20485707692315;-25.557561098039226
295;-12.131364427224709;-122.41502737895934;-25.549298797888383
296;-12.012401625942656;-122.60938772096536;-25.554442431372564
297;-11.890012022247326;-122.7847049924586;-25.557071483785833
298;-11.733322250377027;-122.90121877752648;-25.619511034690813
299;-11.638968455882301;-123.00569499019615;-25.604685289215695
300;-11.618631497737503;-123.0512509200604;-25.5932253182504
301;-11.63552615271486;-123.09554393401213;-25.58024532654602
302;-11.665819924585145;-123.13309133333335;-25.530391476621446
303;-11.71176496945695;-123.15857854524893;-25.522787396304697
304;-11.73378769683253;-123.21041180995478;-25.503445745098066
305;-11.78711811726994;-123.21180515120669;-25.43382382428358
306;-11.834102576923032;-123.19284902564108;-25.352978423076944
307;-11.912644310331785;-123.18904842647065;-25.291951021870307
308;-11.95880490196074;-123.12510760030166;-25.267984829562607
309;-12.071884067119106;-123.00886361538464;-25.046316633861267
310;-12.224208349924531;-122.82315174132737;-24.77844913725492
311;-12.364559001508235;-122.66542458144802;-24.675670151583716
312;-12.577708999999944;-122.48712188235298;-24.449589529411778
313;-12.62951024773752;-122.31654026885379;-24.46992987518856
314;-12.652322334087431;-122.24304776772253;-24.48633833484166
315;-12.695743398189997;-122.1904242971343;-24.446798126319766
316;-12.82658955656101;-122.16913615837105;-24.222004226244376
317;-12.953836454751064;-122.12097511010559;-23.954771689668192
318;-13.069174438159804;-122.09354301282049;-23.65574858446456
319;-13.121068634238213;-122.09340604487181;-23.51164828242838
320;-13.130211914027052;-122.11736540573155;-23.461734491704394
321;-13.158726082579081;-122.16728127564103;-23.413717534690814
322;-13.18354490874801;-122.20727284539974;-23.37195394343893
323;-13.236019955128107;-122.24363343589745;-23.27173320512821
324;-13.25664726395164;-122.27394945550533;-23.148237010558088
325;-13.299995514705808;-122.34150415686277;-23.07334567156865
326;-13.371147019607783;-122.41767497511317;-22.983406688536977
327;-13.444707885369475;-122.50771975452494;-22.848194767722475
328;-13.440444660633412;-122.62849483107091;-22.847503472096538
329;-13.445611679110028;-122.7572653676471;-22.777841024886886
330;-13.430253040723903;-122.87464159276023;-22.824749677224744
331;-13.429144217194477;-123.02776612669687;-22.809917096153853
332;-13.459001159879227;-123.17621297134242;-22.80361427300151
333;-13.475469479637908;-123.34433951960789;-22.875293056938172
334;-13.499620821266873;-123.53426434992463;-22.946179130467588
335;-13.522569628582104;-123.70330961500754;-23.01391297398192
336;-13.528082514328718;-123.86976264705885;-23.099145553544506
337;-13.54395850226235;-124.05416501018101;-23.181944374057323
338;-13.528761450980298;-124.25190509803927;-23.310992696078454
339;-13.489950813725416;-124.43974542609355;-23.450739019230785
340;-13.38264115384606;-124.62902128205128;-23.649881358974365
341;-13.322051513197492;-124.82412040045251;-23.88965515723984
342;-13.212150518099456;-124.99829564404227;-24.132953296380112
343;-13.143024386123585;-125.13703963499249;-24.27167739856714
344;-13.115032387631873;-125.29156956259432;-24.41184859125191
345;-13.078938020361884;-125.49087777677228;-24.5792909728507
346;-13.046128653846063;-125.68246001885375;-24.719030782805447
347;-12.940374061840034;-125.84470821832582;-24.989909969079946
348;-12.907375812971251;-125.98465392006035;-25.097107535444966
349;-12.887570618778192;-126.14754442458523;-25.138365554675733
350;-12.792910740573058;-126.32197171116142;-25.413902337104105
351;-12.75894107843127;-126.48073188725495;-25.6097478529412
352;-12.749116375565508;-126.63445133031682;-25.782916669683285
353;-12.823938908748005;-126.80716801357471;-25.966332654223265
354;-12.873267754901825;-126.95624536877831;-26.19294301508297
355;-12.90815563046744;-127.0963942812972;-26.452789651960803
356;-12.903577998491578;-127.19845533936655;-26.712635678733026
357;-12.853988621794748;-127.3302573397436;-26.894720621794875
358;-12.79237385218689;-127.4884727865762;-27.030497671945714
359;-12.657646035444836;-127.64801092647058;-27.19669699132731
360;-12.511921996983299;-127.77903155505281;-27.320175363499256
361;-12.40275746455494;-127.92592915837105;-27.425504625565612
362;-12.293793999999869;-128.07884094042234;-27.484483333333355
363;-12.196782293740448;-128.19711428016595;-27.53449108144798
364;-12.105425274509672;-128.33718241176476;-27.577738156862765
365;-11.994923452865637;-128.4520863710408;-27.578173384238326
366;-11.903202297888258;-128.58622390346912;-27.56210044419308
367;-11.77602007428343;-128.73674381070893;-27.51921261840124
368;-11.660207354449335;-128.87536324132736;-27.484130766214196
369;-11.582245688536835;-128.96999096908;-27.381914740950247
370;-11.52431513423821;-129.0699426500755;-27.25806732956261
371;-11.398173622925997;-129.19156550263958;-27.190995965686295
372;-11.2540854841628;-129.28372969834092;-27.093976048265475
373;-11.150137289969756;-129.35829657956265;-26.97333963914029
374;-10.954842102564044;-129.42123623076924;-26.87802825641028
375;-10.76601987707385;-129.50228024849176;-26.784718548265502
376;-10.592202003016512;-129.53556193514333;-26.550184348416323
377;-10.386962882352885;-129.5898487058824;-26.280957931372587
378;-10.158629696832513;-129.6605847503771;-26.037854384615414
379;-9.899784194192991;-129.69964317232282;-25.91046767269987
380;-9.656864446455451;-129.71534825641027;-25.705854129713444
381;-9.394106726621354;-129.72533073567124;-25.508737374057336
382;-9.154119603318195;-129.71306861085978;-25.272789193061868
383;-9.006315699472035;-129.6563277043741;-24.84764021455506
384;-8.794703731523326;-129.56093985972853;-24.633220440422335
385;-8.608476569381537;-129.45510187518857;-24.414485309954756
386;-8.511525415535372;-129.26859180995476;-24.109859671191582
387;-8.387205444192999;-129.06187298265465;-23.864371937782835
388;-8.401035538461478;-128.80927691855206;-23.587911156862774
389;-8.359861096907933;-128.53366030505282;-23.458792233031698
390;-8.449616352941113;-128.20347739215688;-23.184453656862754
391;-8.614047179487118;-127.88585642307696;-22.929430391025647
392;-8.998445458521799;-127.50656221568634;-22.528519392156877
393;-9.461592979637942;-126.98426624472098;-22.038829418552037
394;-10.06519570437397;-126.33714591176478;-21.557938314479653
395;-10.695181224735984;-125.62899456108602;-21.05013321040725
396;-11.5166576953242;-124.84146421417807;-20.387252387632007
397;-12.460733986048188;-123.86169781410261;-19.59809627714934
398;-13.386380561085922;-122.77310736953244;-18.885686521116128
399;-14.366297652714842;-121.47677089328813;-18.016351200226264
400;-15.325784419306112;-120.08089713273006;-17.073678244343885
401;-16.17795860218694;-118.54914783974368;-16.12755358408752
402;-17.05514480392151;-117.03966447209659;-15.084435647058845
403;-17.724181480392065;-115.42134958823537;-14.105303348039259
404;-18.405029004524806;-113.79788914630471;-13.079560660633511
405;-19.091085739818933;-112.17387608182503;-12.06943708861238
406;-19.695583926093416;-110.5015409502263;-11.056046790346942
407;-20.17407195286567;-108.7925951432881;-10.175759553544507
408;-20.674775589743493;-107.0711598205129;-9.314603025641063
409;-21.143968098416195;-105.32764146417803;-8.51692665723985
410;-21.552937717194464;-103.58281304449484;-7.855365592760218
411;-21.91925570701348;-101.80184822662146;-7.308192631598811
412;-22.33721853846147;-100.01674185067874;-6.69498453996984
413;-22.714810826922996;-98.24617894494729;-6.247274381221739
414;-23.12039719079931;-96.45074750452488;-5.891152350678735
415;-23.610093861990833;-94.65018905316748;-5.4503983261689415
416;-24.160779882352823;-92.82704498039216;-5.1429040392157
417;-24.7370562062593;-91.05885936990956;-4.776085294871817
418;-25.358322734539872;-89.30297122549024;-4.500708351432896
419;-26.12605891779782;-87.53495031862745;-4.027892949095023
420;-26.805369668174876;-85.82029925641034;-3.722492034690817
421;-27.618378300904908;-84.15266026244345;-3.3676002790347077
422;-28.385129390648473;-82.47388893589749;-3.141292604826564
423;-29.097350500377;-80.82253124849173;-2.864772983785818
424;-29.85454547058814;-79.35895730467577;-2.585318057315253
425;-30.468575826922997;-77.88246867948722;-2.3791249294872046
426;-31.170767051281985;-76.44766190874813;-2.0029771711915707
427;-31.60271500490187;-75.1489103476622;-1.8867266331071102
428;-32.143096705882286;-73.90947049924587;-1.6353121493212683
429;-32.54581455882345;-72.76752464705888;-1.4231177892157125
430;-32.896910555806876;-71.695583214178;-1.258016947963826
431;-33.16192108031668;-70.72719682956269;-1.159653046757187
432;-33.36230688536947;-69.8677006726999;-0.9969384524887118
433;-33.49146727488682;-69.0735050282806;-0.8380210833333424
434;-33.63830611236796;-68.39056144871802;-0.6938464328808681
435;-33.833220924208085;-67.69099092533939;-0.42888425263952534
436;-34.00068279185514;-67.04425404977384;-0.16039282202114583
437;-34.093390759049704;-66.41589088423835;-0.026313439668198768
438;-34.1511335799396;-65.77991548039218;0.04994136349923887
439;-34.23725333672694;-65.11214343514332;0.15203066289590103
440;-34.385326570135696;-64.39790234992462;0.38046455505276394
441;-34.57949286010553;-63.68022267269989;0.5399809777526133
442;-34.820028999999955;-62.96654233333337;0.6541289999999833
443;-34.99316274999995;-62.179958843514385;0.7563524932126496
444;-35.11235390950222;-61.342894699849204;0.8297185218702655
445;-35.275830071643995;-60.49297243099551;0.7598727073906243
446;-35.57346218024127;-59.65964046907998;0.9556119698340616
447;-35.69962318438908;-58.86290750754151;0.9521967428355653
448;-35.7543223589743;-58.01456215082962;0.7868408763197398
449;-35.9599423125942;-57.261193723981926;0.8008628163650071
450;-36.12148371719449;-56.486176841629025;0.9323312971342311
451;-36.27573938009042;-55.76716157918555;1.0101129947209602
452;-36.318598346907926;-55.076319874811496;0.9726434901960731
453;-36.406364539215616;-54.429347580693864;0.9863033118401118
454;-36.49505103544489;-53.80126906410259;1.020283350678722
455;-36.66388587254897;-53.12905182843142;1.3578160833333215
456;-36.77790730165908;-52.52773428657623;1.4389057752639316
457;-36.825513747360446;-51.892066415158446;1.449108746229224
458;-36.85676087330313;-51.31637616742088;1.4800810852186859
459;-36.895683724358946;-50.77533432692311;1.6961138782051155
460;-36.93844197737553;-50.14697009502266;1.952373485671193
461;-36.900027414781256;-49.63153974434391;2.1032144736048175
462;-36.894470809954704;-49.17366808295633;2.2416159705882035
463;-36.85012724886873;-48.66183789366519;2.4164733092005792
464;-36.8190486048265;-48.16144758672706;2.6606425565610516
465;-36.80597996606329;-47.71981862292614;2.9894065565610783
466;-36.717518086726955;-47.20633760105583;3.1197951508295696
467;-36.68529514517343;-46.79178062594273;3.5175118631221634
468;-36.61001731372548;-46.31192837254906;3.7726580392156657
469;-36.58271953054299;-45.80654182239824;4.078149583333308
470;-36.40907943514328;-45.419543634992486;4.413496193815966
471;-36.22510959464555;-44.99702435143292;4.758190697586699
472;-36.02992026244342;-44.61069857466068;4.863310529411748
473;-35.908230906108585;-44.24253036727003;5.257520137631961
474;-35.73557775942684;-43.9336510294118;5.605899619155335
475;-35.557349341251864;-43.610087188914086;5.824661288838605
476;-35.45231551282049;-43.318743615384655;6.019293282051247
477;-35.29719332088987;-42.991134918175;6.419170303167405
478;-35.07428105203616;-42.75105433785825;6.769662567873279
479;-34.95211276772245;-42.44179943212672;7.065562257541454
480;-34.75533797586723;-42.228786850678766;7.2929475173453895
481;-34.494125553921535;-41.964237127451014;7.506853568627423
482;-34.28281056636498;-41.7086588793364;7.653733073906469
483;-34.08399296757159;-41.54023740912521;7.7701760829561985
484;-33.975401348416234;-41.29306760482659;8.31447740874809
485;-33.79821190007535;-41.10214225565614;8.610464737933627
486;-33.67931672549013;-40.987481540724;8.75062628883859
487;-33.516065670060286;-40.75597752903473;8.90352459653089
488;-33.3251957058823;-40.54164211312221;9.083291304675713
489;-33.21935548567114;-40.407198463423846;9.458526614253397
490;-33.13007807616886;-40.25660927224741;9.622690579185521
491;-33.00321548906481;-40.018449390648634;9.68803307126695
492;-32.873443282051234;-39.83436225490201;9.811066176470561
493;-32.708647083333275;-39.713387102564134;9.91080283974358
494;-32.60698242156857;-39.55088483333338;10.134455176470569
495;-32.54311691440416;-39.3944968529412;10.373417699849165
496;-32.43917409954745;-39.23045174660637;10.400095496229214
497;-32.45515886576162;-39.170769091251934;10.732008289215669
498;-32.259573876319685;-39.10294888009053;10.87186318099545
499;-32.07951531787322;-38.98585040120667;11.021161111990937
500;-31.932844668174894;-38.90163239064858;11.142740233785828
501;-31.830148671568583;-38.82080480580696;11.382794685897409
502;-31.69721037858217;-38.78394769004526;11.4903083770739
503;-31.548178534690777;-38.753224839743616;11.704447680995466
504;-31.29519428808442;-38.75169920965312;11.743056096530927
505;-31.23616621530915;-38.80828428582206;11.954691778280498
506;-31.247491391402665;-38.81171891025646;12.2320748031674
507;-31.146787436274465;-38.796535558823564;12.33287198039214
508;-31.020958609351396;-38.777847627451;12.458308395173438
509;-30.857297169683207;-38.76836538348417;12.549795966063328
510;-30.74252925641021;-38.75369171794873;12.667487051282022
511;-30.65171198039211;-38.75808082956262;12.776648464932109
512;-30.530682082956208;-38.73693176470592;12.844773479637995
513;-30.43690510105577;-38.734655003770776;12.91299227526393
514;-30.35722025490193;-38.71596208446459;12.926958141779773
515;-30.255316638386095;-38.721944311840154;12.925173039592726
516;-30.181465423831025;-38.715606168929156;12.89209994268473
517;-30.07911548567114;-38.72059542194575;12.938756725113096
518;-29.986818154600243;-38.735459012066414;12.929646214932093
519;-29.908589354072344;-38.73127650414785;12.90795775188536
520;-29.859007176470545;-38.72478580392159;12.940908176470579
521;-29.799419093137214;-38.726434878582225;12.92799946304674
522;-29.780716578431328;-38.73210178355961;12.9220679102564
523;-29.76857901282048;-38.71248270701363;12.938055561463033
524;-29.74758151885365;-38.69969708144803;12.909168781297105
525;-29.722987420437345;-38.65967548001512;12.876411146681704
526;-29.71581845098034;-38.621252965309225;12.820558235294087
527;-29.688624134615324;-38.603398935897474;12.765141730769214
528;-29.695739405731445;-38.605432546003065;12.744361497737543
529;-29.670627243966734;-38.59168909539973;12.676296004147806
530;-29.69115652564092;-38.621160000000046;12.661532922322758
531;-29.720413909879227;-38.63053319457018;12.686349813348412
532;-29.751862052790234;-38.63667942986431;12.64972143137252
533;-29.738625901960678;-38.66618305882357;12.62014754901958
534;-29.777490756410135;-38.718398808446494;12.634899880844635
535;-29.79422315384605;-38.74989750867274;12.618316436274496
536;-29.755015696832476;-38.80704308748117;12.600693897435882
537;-29.773138047888278;-38.83855047963806;12.617697123303143
538;-29.791787116892802;-38.88660210181001;12.615991695324274
539;-29.790572024132604;-38.95730748114632;12.602457651583682
540;-29.79379591704361;-39.03684388386127;12.66702501508292
541;-29.78702914441918;-39.17432675754149;12.59919556598792
542;-29.797985552790212;-39.3169168273002;12.561138175716408
543;-29.788970400829452;-39.503766205882386;12.518599823906463
544;-29.749876307692194;-39.67511069230772;12.451507743589739
545;-29.77550237631966;-39.802859972096584;12.399505847662132
546;-29.791178656862645;-39.896113715686326;12.28451715686271
547;-29.805556093514237;-40.05086711274513;12.197171208144775
548;-29.834953206636403;-40.23202254147815;12.074649907993951
549;-29.854441725113034;-40.40280783257922;11.930124857466053
550;-29.848202596530836;-40.54623383710409;11.703552575414735
551;-29.90702844607834;-40.67563450301662;11.63246715535442
552;-29.94608581749613;-40.78861648567119;11.564148800904961
553;-30.036631428355843;-40.955999315233804;11.544942384615352
554;-30.097421599547413;-41.128824006787355;11.501392948717927
555;-30.147153888008944;-41.32835380429867;11.454795619532405
556;-30.21043801960774;-41.48991101508302;11.383515822021101
557;-30.289863603318135;-41.617107552790394;11.315035398944184
558;-30.339707343137135;-41.72673643966822;11.17627315233787
559;-30.38319745588224;-41.9147362401961;11.034620651960788
560;-30.3413102745097;-42.116645098039236;10.721082150829568
561;-30.348655051281952;-42.29662092307694;10.531264833333331
562;-30.384619262443334;-42.43907061613878;10.492596878582201
563;-30.39995110897424;-42.576231162895965;10.44728225716439
564;-30.369323081447835;-42.78145997285072;10.374254674208123
565;-30.340808665535317;-42.97503291817501;10.305770276018082
566;-30.318793982654466;-43.14116061613879;10.220145927601797
567;-30.313706648944066;-43.28587756636505;10.158143167797885
568;-30.26887613725478;-43.36293956561088;9.891975870286544
569;-30.332758112367898;-43.472478101809976;9.763565885369523
570;-30.442259769230645;-43.62941685369537;9.692010880090477
571;-30.519507130467428;-43.76058477865766;9.574940183634977
572;-30.665581745097924;-43.910501450980426;9.472670372549013
573;-30.749604646681643;-44.03678572850681;9.369767391025627
574;-30.848770755655977;-44.15245494947214;9.19844462443438
575;-31.043930884615282;-44.28637258785823;9.05572319042231
576;-31.186083390648463;-44.486569061840136;8.912851072398173
577;-31.290366733785714;-44.72574403846155;8.758868017345366
578;-31.30270644871784;-44.92870684615389;8.608647038461529
579;-31.429973913649974;-45.206805769984975;8.5384221832579
580;-31.516456823529307;-45.574881081448005;8.392451773755635
581;-31.590274788461425;-45.9234077775264;8.2015585011312
582;-31.601852019607733;-46.42406678280545;7.820422336349939
583;-31.524598812217082;-46.77761212179488;7.595418124057292
584;-31.560643052790226;-47.32867317647062;7.504168618401187
585;-31.50262434803909;-47.851428230392145;7.246056911764714
586;-31.373391268476478;-48.36120534389139;6.8089861621417755
587;-31.29843406749608;-48.94389747963805;6.366384173076899
588;-31.33956873152323;-49.47375925791858;5.966657093514304
589;-31.352857809200458;-49.94498096945705;5.604786740950186
590;-31.325073089743437;-50.48559093589745;5.082560462292624
591;-31.30075709502246;-50.80407344155356;4.463944966817493
592;-31.44452796983394;-51.18570155656113;3.95671779336349
593;-31.505472372548866;-51.434873921945744;3.4447320806938024
594;-31.619318355957613;-51.677277668175;2.827602857466026
595;-31.72551964102546;-51.85582580128207;2.1546532371795024
596;-32.03745809502244;-51.95079606184015;1.6411962292609374
597;-32.18162318476604;-52.00938227828058;0.7937168420060209
598;-32.527025450980226;-52.12380991176472;0.3195322254901525
599;-32.78780074773738;-52.173149338989454;-0.3759408985670962
600;-33.06856433785806;-52.21071759125189;-0.8556564977375576
601;-33.19464018099532;-52.18242417496233;-1.6786146881598647
602;-33.37674481749607;-52.163297216440476;-2.194199134992464
603;-33.58053597134222;-52.12385954223231;-2.736667792609366
604;-33.67730357013557;-52.09344253544498;-3.4343152262443284
605;-33.925899218325625;-52.06824479260939;-3.768250639517342
606;-34.04327362594251;-52.00701292458525;-4.298347463046757
607;-34.27104007956244;-51.99140098265463;-4.730821424585242
608;-34.479068180995334;-51.984055082956296;-4.866155644042252
609;-34.666752794117485;-51.93652044004528;-5.21235528657617
610;-34.80813228582187;-51.884794679487214;-5.5521444690799635
611;-34.923689627450834;-51.86283508823531;-5.698803186274541
612;-35.11048153846139;-51.82928210256412;-5.905647897435908
613;-35.225152760934996;-51.80267718024137;-5.999793784313719
614;-35.275487436651424;-51.74433780015087;-6.154071907239822
615;-35.34451028808431;-51.66610998265461;-6.360128693816009
616;-35.466318072398046;-51.61093216591255;-6.520479954751155
617;-35.57475181033168;-51.52898138009053;-6.671748073906511
618;-35.65397299170423;-51.46835113273004;-6.867850253393666
619;-35.6934693273;-51.395170680241336;-6.957474478883881
620;-35.76216934992445;-51.289594757164416;-7.162866772247369
621;-35.856814542609214;-51.20805018099552;-7.398807686274524
622;-35.95929321568614;-51.11804085822026;-7.576838914781326
623;-36.04410719193047;-51.05962168514332;-7.687602803921578
624;-36.118801274509686;-50.990194117647114;-7.76762994117648
625;-36.20907890648555;-50.93915324132735;-7.9191697168174935
626;-36.316357025640905;-50.90797587556563;-7.964174926847665
627;-36.427349427978754;-50.903742135369576;-7.994006130467594
628;-36.518335764705775;-50.884907825037764;-8.036349609351436
629;-36.535206506410155;-50.90349901282056;-8.10103217307693
630;-36.58051058446443;-50.97781588763201;-8.102446842383124
631;-36.60127900641013;-51.07804624509808;-8.103810654977401
632;-36.635761300150705;-51.21651804977381;-8.057113042232311
633;-36.62762880656097;-51.353983332202176;-8.049704260935178
634;-36.639560212669565;-51.48320889215692;-7.931327622926115
635;-36.61290702790333;-51.580487088989464;-7.891380858974384
636;-36.58822143288072;-51.704509410256456;-7.851657372549037
637;-36.54766281862732;-51.83086536274511;-7.811796877450992
638;-36.492922390648445;-51.99571995550531;-7.7632641078431455
639;-36.39923183144785;-52.14854191176473;-7.74064316855205
640;-36.3384743453996;-52.28040873001515;-7.7025386365007655
641;-36.23940798567109;-52.37521234954759;-7.658328814479649
642;-36.142430970588144;-52.44717554449479;-7.621979296380116
643;-36.04212497699839;-52.48803832051286;-7.584195102564131
644;-35.93520942533926;-52.52792922775268;-7.513347891402744
645;-35.80352647775251;-52.56322240837107;-7.643027424962323
646;-35.70981964102551;-52.625681423076934;-7.6275747948718235
647;-35.677077618023986;-52.65963735407241;-7.565844380090529
648;-35.57751559276003;-52.68288178883865;-7.546219051282077
649;-35.509607343137105;-52.724005325414815;-7.500588325037724
650;-35.41708430392142;-52.7464148529412;-7.4424269313725775
651;-35.328686943438775;-52.78354649547514;-7.425908584087495
652;-35.31527837707376;-52.82576679336352;-7.215080532428371
653;-35.17290868024119;-52.85367097171949;-7.172254640271508
654;-35.04221318778267;-52.874987710407275;-7.175738730015101
655;-34.95864170965296;-52.87362470739068;-7.114074800150859
656;-34.84753199396669;-52.86799529864255;-7.131040547511325
657;-34.75287771644029;-52.887785115007524;-7.099552481900466
658;-34.677214113122034;-52.8830906244344;-7.004300872549045
659;-34.57388971153833;-52.85169522435901;-6.984981891402733
660;-34.502386497737426;-52.84684891553548;-6.994880716440441
661;-34.41678352300138;-52.80091308333338;-6.971411074283588
662;-34.37872045173441;-52.7620003733032;-6.924488549773767
663;-34.29223424999987;-52.682311833333365;-6.951830500000024
664;-34.25572786576156;-52.64040257616896;-6.917026007541495
665;-34.211048797134104;-52.5864143932881;-6.859081058446475
666;-34.14987615158358;-52.54048961236805;-6.829486730015101
667;-34.10051522398175;-52.47921562292612;-6.806096083333345
668;-34.05824935746592;-52.44159737104072;-6.809509307692327
669;-33.97299530769216;-52.41171421945703;-6.772709345399726
670;-33.89961226847648;-52.385797796380096;-6.752676147058831
671;-33.80151800980377;-52.38485129901965;-6.720330541478138
672;-33.6598128401205;-52.3533882187029;-6.73815971644044
673;-33.55679488914012;-52.32482018212673;-6.704809640648578
674;-33.4209328114629;-52.26927822775264;-6.664101364253391
675;-33.32588365761674;-52.20357431975868;-6.623594255656123
676;-33.23553394117633;-52.17699513725493;-6.5978993333333475
677;-33.139960371040566;-52.12988327903474;-6.593413233408761
678;-33.0135350844644;-52.05149496380091;-6.648100562594297
679;-32.84654262368011;-51.98115776960788;-6.6123084483409045
680;-32.66695094871783;-51.89857123076926;-6.447288717948747
681;-32.40920712858208;-51.78491406297136;-6.252957424585232
682;-32.119008378582066;-51.67224493212674;-6.091237913273017
683;-31.702134503770612;-51.612775658371085;-5.978341354072424
684;-31.29159355806928;-51.62729457013578;-5.86388096832582
685;-30.942942750754042;-51.64089741289599;-5.764057652714953
686;-30.650084951734417;-51.65429676168932;-5.549400558069397
687;-30.41130076847649;-51.618830376319806;-5.481901408371054
688;-30.20360338914014;-51.64645376621424;-5.460885108597304
689;-30.016925642156746;-51.66599520588241;-5.368634416666686
690;-29.862535505278903;-51.69495471644049;-5.319929245852207
691;-29.760863340874675;-51.74377293815994;-5.233685523378601
692;-29.76360848868765;-51.77525832428361;-4.900535573152345
693;-29.782934837480997;-51.840114602941235;-4.648695357843171
694;-29.772862596530768;-51.96944202413278;-4.425392297134255
695;-29.7482004962291;-52.07037604147819;-4.255526930241339
696;-29.637770662141616;-52.33957527300154;-4.059832322775278
697;-29.536839557692137;-52.68134323076927;-3.7424033333333426
698;-29.489079439668;-53.063124839366566;-3.342564701357522
699;-29.408177182880692;-53.466773283559604;-2.867262915158404
700;-29.200987944192914;-54.020789570135776;-2.41078236048267
701;-29.014434051658984;-54.587796384238345;-2.0058754264706065
702;-28.63944528431357;-55.21810562745103;-1.6284202156862764
703;-28.332057685143184;-55.982559918552056;-1.2772011093514701
704;-28.03555041327287;-56.825269076923085;-0.7672953981900669
705;-27.496233273755525;-57.637032548265466;-0.42902854600303036
706;-27.12394468401193;-58.569235468325836;0.2778344245852136
707;-26.571776249622832;-59.54043728959272;0.6321182194569592
708;-26.008015636500648;-60.58286722473603;1.08554081749619
709;-25.421717320889773;-61.66741673981901;1.5372678431372269
710;-24.80339680618386;-62.78920458672706;2.009397035444911
711;-24.119403266214007;-63.95096395625949;2.3332609110105476
712;-23.519019911010457;-65.14664172850675;2.688012337858184
713;-22.818488231146173;-66.3274131297134;2.9947291202865576
714;-22.126490974358827;-67.47027896153845;3.2773508076922817
715;-21.463905990195908;-68.56355494607844;3.527509999999985
716;-20.729477007541288;-69.5957962594269;3.662176265460013
717;-20.007018849924446;-70.62576794758668;3.8430212036198816
718;-19.332073361990783;-71.52638276018098;3.8778645610859446
719;-18.653843228883662;-72.3885853574661;3.9078091813725258
720;-18.07402264555031;-73.19923457164408;4.088157613876296
721;-17.48964120814455;-73.94534053092013;4.094718274132709
722;-16.927135856711722;-74.66649262368026;4.040562837858205
723;-16.38582795399677;-75.35014938348418;4.101675975113104
724;-15.814422814479391;-75.94272067722476;3.9799178702865654
725;-15.350101738310464;-76.52421525263955;3.939973960030161
726;-14.7923615897434;-77.14713565384615;3.7593273220211088
727;-14.339830282051075;-77.65216934276019;3.7176046696832614
728;-13.910084490195864;-78.21183537254907;3.583110980392154
729;-13.452478892910795;-78.73377756975871;3.5786713484162767
730;-13.112317526394959;-79.19786621493218;3.542810403469067
731;-12.546511807692127;-79.74977353846153;3.2737539807692144
732;-12.174720883861035;-80.17128322171946;3.1630448009049554
733;-11.73051170475093;-80.68814920324287;2.9428309973604527
734;-11.33590397586707;-81.09848536199098;2.8977749532428088
735;-10.9517753699093;-81.60405674698343;2.588864712669659
736;-10.566695184011897;-81.97864136953241;2.4236729472096386
737;-10.197485282051112;-82.43139253205129;2.3445517454751004
738;-9.921388751885189;-82.76856315233788;2.2575923159879214
739;-9.572884396304511;-83.20358814064859;2.0199269083710307
740;-9.31202465309184;-83.53324986727;1.998058402714913
741;-9.001775813725324;-83.89722539705885;1.8271168872548804
742;-8.696852012066211;-84.25955400377076;1.5584936199094834
743;-8.503260384992293;-84.47737951546009;1.4685340177224535
744;-8.272363432880681;-84.77184257466068;1.3430457104072142
745;-8.019323125565464;-85.06543367156867;1.215973541478122
746;-7.766880369532278;-85.26018855203624;1.1079427488687648
747;-7.551723236048105;-85.47096252639521;1.0040322269984758
748;-7.419755846153677;-85.70789276923081;0.9007119743589556
749;-7.1411229837856665;-85.95626851131225;0.6089206621417603
750;-7.063206343137108;-86.08232109728509;0.7085717941176265
751;-6.819489275640876;-86.28295178921574;0.5118919415535288
752;-6.611643117646885;-86.45324786425346;0.40333564705879227
753;-6.417919095399512;-86.62705763763203;0.35673207767721316
754;-6.2809747941174905;-86.75646973529416;0.2906976176470479
755;-6.175390327677069;-86.8463959226999;0.2904047156862488
756;-6.025771558069233;-86.89462745248873;0.34532387481145205
757;-5.847085021493051;-86.99151259690802;0.39328676885367425
758;-5.694475143287927;-87.0750014351433;0.39967075490194665
759;-5.521358800904831;-87.15608573642537;0.38657503167419666
760;-5.413773564102404;-87.21293642533941;0.4526368416289492
761;-5.314816765459869;-87.24740348190049;0.4792443122171867
762;-5.177362162895773;-87.28782517345404;0.5549542956259198
763;-5.010570506410097;-87.31992097247364;0.48184412066363463
764;-4.952276345399549;-87.33787830769234;0.6767142654600143
765;-4.847307749999871;-87.33944880128206;0.7035005128204972
766;-4.803226033182341;-87.3358669306184;0.7757434132729869
767;-4.773449671568476;-87.26199089705882;0.8914652843137073
768;-4.635814651583575;-87.18232104826548;0.8326930573152076
769;-4.646679936274372;-87.14180465610862;1.0254322092759949
770;-4.544198114630315;-87.07481734087486;0.9571529064856433
771;-4.524540171191394;-87.04587453921573;1.0549761542232021
772;-4.480083595776638;-87.00541231372556;1.070869361990926
773;-4.47804937518841;-86.94848239630473;1.118239306938136
774;-4.44350811236789;-86.86011768174967;1.1443303929109987
775;-4.422661889517222;-86.76092735369537;1.1440978710406926
776;-4.391513829562491;-86.67189186576172;1.1524555822020903
777;-4.405607593514216;-86.53766925150836;1.174342553921546
778;-4.406328082201985;-86.40379061538464;1.195885330316708
779;-4.45188998604814;-86.29344044645552;1.2871686432880551
780;-4.499734901960646;-86.18580711764707;1.3549450392156472
781;-4.5093071670436045;-86.09400367043742;1.4028678763197446
782;-4.557216833333203;-85.98411505128207;1.4837014743589805
783;-4.590605647812843;-85.90917786764709;1.5313395139517396
784;-4.658066693815857;-85.83882562895928;1.5865022247360407
785;-4.678187856711777;-85.76571967609352;1.6258381093514291
786;-4.740182282805304;-85.69481514630472;1.640796437405738
787;-4.784353972473475;-85.59121872812973;1.644555159502259
788;-4.826743052790206;-85.50072515535446;1.631815766214163
789;-4.898172948717814;-85.37925859276025;1.6143477224735816
790;-4.950804473604689;-85.29190767269988;1.608535763197552
791;-5.026046463800763;-85.17831283823533;1.5967236998491383
792;-5.101676075414656;-85.05512991855211;1.6085962141779369
793;-5.185107411764574;-84.94314125000007;1.6176753774509554
794;-5.270056561085838;-84.86237818627457;1.6636972873302869
795;-5.348556479637883;-84.76028351131225;1.6567709302412934
796;-5.412528230769105;-84.643941321267;1.5866405942684478
797;-5.480859170060202;-84.5116333996984;1.53374075641024
798;-5.578601620663517;-84.35180639291104;1.479992074660618
799;-5.688278185897303;-84.2105918269231;1.4709047051281867
800;-5.768629568627316;-84.07996268627456;1.4124670407239577
801;-5.882450896681614;-83.9429723849925;1.3669321157616725
802;-5.934582799396554;-83.81772411387638;1.3196686561085953
803;-6.019513314479506;-83.72499894947218;1.295424103695314
804;-6.116775239818874;-83.66733986576173;1.3627908989441888
805;-6.214012134238163;-83.57555123944199;1.329786058823533
806;-6.292418666666502;-83.50427228431379;1.2626432058823547
807;-6.437133429864102;-83.37859641365013;1.2495626791101035
808;-6.517163377073733;-83.23200042383114;1.1954677647058636
809;-6.663237590874658;-83.09935692647065;1.1570001266968268
810;-6.76733393815972;-82.9460172963801;1.1629125444947184
811;-6.914627833333164;-82.78515583936655;1.1648994717194532
812;-7.027592595776613;-82.6483384932127;1.1828839653091745
813;-7.197650070135583;-82.56172173981905;1.2633834211915325
814;-7.281462886123532;-82.42268557088994;1.2114991470587955
815;-7.452208534690672;-82.272118591629;1.2559637756410058
816;-7.635784153846015;-82.12876451282057;1.2721803589743057
817;-7.757760883861096;-81.93271926772252;1.1672861323529122
818;-7.947800894419198;-81.7139288514329;1.207544934389124
819;-8.12159197058809;-81.49182940196084;1.2310382745097774
820;-8.326237870286425;-81.28529078733034;1.3623266093514055
821;-8.515659264328647;-81.08141622171946;1.4794119577676972
822;-8.774817934388969;-80.90685830392158;1.576390382352935
823;-9.00578931372536;-80.74612461312222;1.5881495607089076
824;-9.16162156259414;-80.5586722850679;1.4058110920060265
825;-9.382360723981774;-80.30889108898948;1.558129878582186
826;-9.604967112367916;-80.03565787556563;1.7021645656108506
827;-9.801570700980287;-79.7762038374812;1.8300988329562393
828;-9.996423826545886;-79.51276127903473;1.894651743589722
829;-10.216391245475018;-79.23802609879338;1.8879952850678556
830;-10.472914952488585;-79.04304077828057;1.9642979155354128
831;-10.668469746229162;-78.85447084238315;1.9470529607842868
832;-10.832269568627312;-78.67214470588239;2.031522470588215
833;-11.018112923076805;-78.44957319871796;2.073010032051267
834;-11.220302169683123;-78.20884233333338;2.1496468619909237
835;-11.467896050904846;-77.98347918514335;2.210193724358968
836;-11.738521855203466;-77.7192172232278;2.327032458521862
837;-11.951658522247248;-77.52203662179492;2.3656365822021015
838;-12.14958232730003;-77.34794870588242;2.3979031892910947
839;-12.340520389140119;-77.21856055806943;2.3809212997737386
840;-12.56687406334828;-77.05321054600304;2.424074013574646
841;-12.77555322171932;-76.91620481259427;2.319613995098034
842;-13.065060690045113;-76.74103988914032;2.449675150075417
843;-13.295250809200468;-76.58618410369535;2.4374566134992355
844;-13.500037567119021;-76.44677018250378;2.41974745399697
845;-13.72623124509789;-76.28765350980396;2.3369002745098038
846;-13.9982766063347;-76.1276256319759;2.287414953996978
847;-14.242252842382966;-75.99478581711918;2.274394966063336
848;-14.474919677224557;-75.83472386123684;2.2378580150829412
849;-14.681823318627286;-75.67290773265466;2.192061865384586
850;-14.982123205128039;-75.4806986666667;2.195715461538427
851;-15.311965575414627;-75.28453322285068;2.2650967435897003
852;-15.591044831070695;-75.14495298793368;2.214551865761672
853;-15.844051481146131;-75.02175938800909;2.2313226512066104
854;-16.089206402714762;-74.89734751432884;2.273774105580671
855;-16.287124821643875;-74.72198653167426;2.191170130090479
856;-16.520219259426696;-74.51357056862747;2.122328461538453
857;-16.79768907466048;-74.31698994193066;2.101648777903453
858;-17.0730655882351;-74.15324251960789;2.1002099019607603
859;-17.36873341289574;-73.99584921794875;2.1366819969834028
860;-17.68823359125171;-73.87983012368029;2.11717198944193
861;-17.99719656108582;-73.75572057126702;2.1083948755655952
862;-18.32679752714915;-73.59132687858224;2.160363659125183
863;-18.665205316364812;-73.38847848001517;2.180884199095011
864;-19.046361387631773;-73.19009217496236;2.1783897134238104
865;-19.359756088235084;-72.98651381184015;2.1685510354449407
866;-19.73515531900433;-72.7736522564103;2.213147661387627
867;-20.043477461538256;-72.56263745512825;2.1347204679486964
868;-20.465350567118964;-72.3276402911011;2.108938297134217
869;-20.96510506221698;-72.09008287481151;2.1243586674207915
870;-21.485709733031495;-71.7660722971343;2.263390063348376
871;-21.986284931372378;-71.40001510294123;2.5099543431372413
872;-22.483723559577474;-71.00201709351437;2.598165897435876
873;-23.00921880844626;-70.6336171564857;2.6671077982654317
874;-23.61634155052772;-70.19316225490198;2.9625703604826152
875;-24.278319693815792;-69.76693322435901;3.266874221342377
876;-24.9647027586725;-69.39160338310711;3.639981877828052
877;-25.551774914403996;-68.87079956259431;3.860153564856702
878;-26.218278429109905;-68.36803969155358;4.14055625565608
879;-26.874168603695136;-67.73981581447966;4.401395177601773
880;-27.400229520361776;-67.22683839366519;4.589198482654587
881;-27.99181310558045;-66.63009572737565;4.814638937028625
882;-28.71916448190022;-66.08814252036203;5.147317957767694
883;-29.394804800904755;-65.48484152941178;5.296118203242822
884;-30.033129333333125;-65.00741566666666;5.451736666666648
