Frame;3_X;3_Y;3_Z
0;0.0;0.0;0.0
1;-0.34589335454553216;0.03227342077922126;0.012375577922064429
2;-0.701036589610397;0.07228480779221405;0.02850795584415288
3;-1.069973953246769;0.1434627987013114;-0.07400944025973384
4;-1.5682782753247293;0.2654764337662271;-0.160098381818193
5;-2.1481724311688426;0.4253759649350498;-0.16414760129870984
6;-2.645119459740262;0.6164137792207821;-0.12979550389610034
7;-3.123067945454574;0.8457080909090946;-0.11239201818181126
8;-3.684891838961105;1.2995332025973922;-0.273019927272723
9;-4.295336003896102;1.613374948051948;-0.39323455454545553
10;-5.012405488311687;1.7396523740259795;-0.36086190389608885
11;-5.617290471428569;1.6899431857142921;-0.18083608571427873
12;-6.285452937662346;1.9236804571428672;-0.1079091688311733
13;-6.93998215454547;2.324755605194781;-0.2142159090909069
14;-7.631112363636428;2.6950182727272725;-0.3327449272727313
15;-8.312779845454587;2.6935707207792006;-0.14989217272726343
16;-9.117916036363694;2.551784875324688;0.1399679454545418
17;-9.915148375324716;2.4588968376623344;0.3659572506493486
18;-10.6956831064935;2.4942597350649214;0.5243719090909142
19;-11.539978244155872;2.7382365649350535;0.5397458909090874
20;-12.378160529870117;2.9973439506493627;0.4689539999999985
21;-13.34125093636367;3.299357454545452;0.5561076363636415
22;-14.538478571428584;3.707491542857146;0.9197060000000015
23;-15.652271531168845;3.9719616532467414;1.24315556623377
24;-16.662557161039015;4.0359738051948035;1.557461670129872
25;-17.75253051038964;4.057241840259733;1.918039642857141
26;-19.057808259740302;4.203415779220786;2.4167639584415537
27;-20.323789319480543;4.373561314285708;2.870834433766234
28;-21.703658981818187;4.546651890909083;3.1342237636363546
29;-23.02660840649349;4.725178440259752;3.5991255805194795
30;-24.41322095064935;4.943903922077922;4.023255685714284
31;-25.834242412987045;5.083403893506487;4.405999016883117
32;-27.524769784415646;5.184753922077922;4.934721979220783
33;-29.099201514285767;5.296069214285708;5.185168257142857
34;-30.80901462077923;5.578266654545475;5.310891101298698
35;-32.48976065454549;5.666439009090936;5.8686780545454535
36;-34.1898356961039;5.734383402597415;6.252107064935064
37;-36.17039276233766;5.613066497402599;6.571732612987006
38;-38.17103804935066;5.340305158441553;7.03326745454545
39;-39.87360177012988;5.282386040259754;7.6323887727272695
40;-41.89925521298702;5.427640654545458;7.701528553246749
41;-44.10261275454549;5.660093489610382;7.6961864259740285
42;-46.229686545454555;5.843699981818174;7.879903890909096
43;-48.38229059090913;5.953998467532465;8.02762218311688
44;-50.755782657142944;5.8743179714285425;8.332684571428567
45;-53.09224700000004;6.01327334025975;8.365506001298707
46;-55.448657805194806;5.993099075324686;8.640908127272736
47;-57.8856992090909;5.764941653246769;8.904144746753246
48;-60.2987524727273;5.572299462337689;9.118917135064937
49;-62.89367520909091;5.465637563636361;9.295637436363638
50;-65.47599890389611;5.449127542857147;9.47389410909091
51;-68.01553233896107;5.487258146753258;9.5612152038961
52;-70.71768581558447;5.438846607792203;9.607380379220773
53;-73.46079828441563;5.336757009090924;9.869855037662335
54;-76.25301152727278;5.215572722077921;10.043841927272734
55;-79.01119311428575;5.02098919999999;10.228647471428568
56;-81.86708658181819;4.874066672727278;10.173543127272739
57;-84.73780924935068;4.732476364935066;10.251160841558459
58;-87.69550062597405;4.530991872727272;10.41096095844156
59;-90.62862508311692;4.331575440259733;10.423154563636363
60;-93.75374373766235;4.3047979376623235;10.300692470129865
61;-96.65369213116887;3.969811135064923;10.181351107792215
62;-99.82998349870131;3.42419513506494;10.268666044155841
63;-102.82747270000002;3.073325336363625;10.381145936363644
64;-105.84335186753246;2.874666057142858;10.244170223376619
65;-109.03169748701302;2.8248445948051804;10.13264084155844
66;-112.0283292;2.4911132000000022;10.063953028571433
67;-115.05298232727273;2.2082346142857205;9.87561073376624
68;-118.25666811168833;2.068996309090902;9.635331750649346
69;-121.24380254935068;1.9029382727272668;9.227527350649359
70;-124.40209310909093;1.6516167454545603;9.078219545454541
71;-127.55947362987013;1.351876428571431;8.768118477922073
72;-130.53629089870128;1.0925380051948168;8.506871818181821
73;-133.69535506233768;0.9106595181818282;8.101931922077915
74;-136.50807594545455;0.7051141506493416;7.674454779220774
75;-139.81885462337664;0.4810697805194536;7.285993588311683
76;-142.57058707272728;0.23955834025974454;6.870903485714282
77;-146.02178360000002;0.062164100000006786;6.49780420000001
78;-148.8933659324675;-0.20116029610389177;6.126806877922084
79;-151.63777655064936;-0.35949207142855144;5.558139675324671
80;-154.8000925012987;-0.6260680701298782;5.356201968831163
81;-157.55657389350648;-0.9704969999999967;4.731849414285712
82;-160.3543214077922;-1.250287805194781;4.2237717506493535
83;-163.13614464025972;-1.4649699051948162;3.7455364350649374
84;-165.97699232727274;-1.7243587818181751;3.367129490909092
85;-168.69915321168833;-1.9374583974025845;2.855884205194819
86;-171.3996635974026;-2.179800423376606;2.4235204077922234
87;-174.1830608584416;-2.4030452662337547;1.9840077662337776
88;-176.74842385714288;-2.6407210857142944;1.4283150571428507
89;-179.45820729480525;-2.873152929870128;0.9593151428571417
90;-182.02607532467533;-3.1295953584415495;0.44946341038960896
91;-184.54363586363638;-3.3571984181818166;-0.0017146545454508554
92;-187.10342304675328;-3.526591083116884;-0.48645423896103634
93;-189.52716765064937;-3.8534631779220936;-1.0774070727272715
94;-191.68063081298706;-4.021207161038943;-1.881386924675327
95;-193.85970241298702;-4.242731841558422;-2.4590096233766148
96;-196.3001741090909;-4.516886893506485;-3.026644202597397
97;-198.39150865844158;-4.7463711688311765;-3.50018064415584
98;-200.5581901090909;-4.920726381818206;-4.088144163636353
99;-202.8464460857143;-5.170921157142849;-4.61736824285714
100;-204.75556196103895;-5.385083859740259;-5.241864761038961
101;-206.66699194285715;-5.611332544155841;-5.909742022077921
102;-208.54729138181818;-5.956892493506464;-6.511771849350642
103;-210.7045945714286;-6.263301493506474;-6.9633102272727125
104;-212.40712654025975;-6.466792935064919;-7.565793145454545
105;-214.08418920909094;-6.704343054545435;-8.333646463636363
106;-215.8297829038961;-6.947137127272734;-8.782224366233757
107;-217.72649210259743;-7.2090368220779055;-9.076522479220769
108;-219.4435548987013;-7.357774109090921;-9.66960356363636
109;-220.73863320649352;-7.577741472727297;-10.282274363636372
110;-222.31800900000002;-7.717110828571438;-10.98451577142858
111;-223.71158031948053;-7.790496433766231;-11.55109920519479
112;-225.08791496363636;-7.873323127272741;-12.252417327272717
113;-226.4390254103896;-8.190538328571431;-12.683775402597396
114;-227.82928295324683;-8.364614683116882;-13.301774833766236
115;-229.13989479220783;-8.43032964675325;-13.957621827272723
116;-230.23701761558442;-8.61637549610389;-14.65488716883117
117;-231.20572385844156;-8.989268653246748;-15.316837977922072
118;-232.56973200259745;-9.22353304155843;-15.85862279480519
119;-233.89948528181822;-9.422270163636378;-16.489278063636363
120;-234.973758212987;-9.609900729870139;-17.10921421818182
121;-235.623941;-9.790657242857145;-17.734170842857147
122;-236.44447600000004;-9.989875737662326;-18.63128138181819
123;-237.4986793987013;-9.99182281298699;-19.355235906493505
124;-238.50160856623378;-10.004547984415595;-19.730548825974022
125;-239.45030688571427;-10.136484568831172;-20.304518627272735
126;-240.26583994545453;-10.246521054545463;-21.135013509090903
127;-240.80108696493508;-10.358348370129857;-21.931477255844143
128;-241.23785700259742;-10.467956067532455;-22.707139010389604
129;-242.0139939987013;-10.510485894805186;-23.481833461038963
130;-242.85169737402597;-10.59811479220779;-24.10233174285713
131;-243.5188491987013;-10.823667302597409;-24.76050788441558
132;-244.16918728571426;-10.893891199999999;-25.277327057142845
133;-244.78366486363637;-10.727863281818173;-25.780332545454552
134;-245.28563263116885;-10.744839599999992;-26.532100397402598
135;-245.81783053766236;-10.680852202597418;-27.434387880519484
136;-246.34310322597403;-10.695472083116885;-28.203525555844152
137;-246.89560335584414;-10.902268950649352;-28.650186684415587
138;-247.40813240000003;-10.974979379220784;-29.201834623376623
139;-247.8830951;-10.807049807792207;-29.85162223376622
140;-248.2421737636364;-10.726361745454534;-30.187231781818184
141;-248.67740956363642;-10.710455158441537;-30.364139048051946
142;-249.1929682935065;-10.679818397402581;-30.509745148051934
143;-249.59302452857145;-10.368192985714273;-30.813566171428572
144;-249.92085846753247;-10.166210955844155;-31.17177041558441
145;-250.2897599649351;-10.146904072727276;-31.643991949350642
146;-250.54199924415587;-10.041833792207795;-32.04169076623376
147;-250.8013148;-9.937754218181798;-32.395438218181816
148;-251.19123058701297;-9.787870890909064;-32.7043619038961
149;-251.4587502558442;-9.690441505194798;-32.90764492857143
150;-251.62901705714285;-9.637012532467546;-33.10747879480519
151;-251.7015057974026;-9.570430163636335;-33.32794924675324
152;-251.7179914337663;-9.53042069350647;-33.581287389610395
153;-251.8095977038961;-9.458065976623379;-33.807301212987014
154;-251.95631120000002;-9.3562498;-34.0131914
